<?xml version="1.0"?>
<opencv_storage>
<my_svm type_id="opencv-ml-svm">
  <svm_type>C_SVC</svm_type>
  <kernel><type>LINEAR</type></kernel>
  <C>1.0000000000000000e-02</C>
  <term_criteria><epsilon>1.1920928955078125e-07</epsilon>
    <iterations>50000</iterations></term_criteria>
  <var_all>3780</var_all>
  <var_count>3780</var_count>
  <class_count>2</class_count>
  <class_labels type_id="opencv-matrix">
    <rows>1</rows>
    <cols>2</cols>
    <dt>i</dt>
    <data>
      -1 1</data></class_labels>
  <sv_total>1</sv_total>
  <support_vectors>
    <_>
      -4.42525260e-02 9.42948833e-03 2.88031232e-02 -7.69296288e-02
      -7.20923813e-03 -4.01305817e-02 3.52506526e-03 6.69866940e-03
      -7.13336691e-02 -1.22924760e-01 -1.52100634e-03 1.30191166e-02
      -6.91080540e-02 2.18727197e-02 -1.00126490e-01 -1.35625899e-02
      2.41168984e-03 -1.03941321e-01 -3.88644710e-02 4.53048944e-02
      5.56036457e-02 -6.18857406e-02 -6.82455525e-02 -2.15173829e-02
      3.84518169e-02 -1.01804370e-02 -3.65408398e-02 -8.55088159e-02
      1.44667607e-02 5.70496991e-02 -7.81756938e-02 -5.85318170e-02
      -9.12443921e-02 3.60286249e-05 -1.44163938e-03 -7.33230487e-02
      -4.10955660e-02 2.86621712e-02 -2.95458944e-03 -2.88224854e-02
      5.01170419e-02 -5.24890609e-02 2.27206349e-02 2.31977589e-02
      -7.88992569e-02 -3.72318402e-02 -4.94691683e-03 -1.42625878e-02
      -6.42615408e-02 4.84846346e-02 -3.02587710e-02 1.58734079e-02
      -1.28720449e-02 -5.30888401e-02 -5.33829033e-02 2.54250225e-02
      2.30439138e-02 -1.67953949e-02 -2.20979899e-02 -4.76767085e-02
      4.43201400e-02 2.24949755e-02 -5.96390627e-02 -5.45699522e-02
      -9.06594098e-03 -3.61843384e-03 -7.29811713e-02 -5.80745600e-02
      -3.33663672e-02 3.58124599e-02 1.73008647e-02 -5.00193350e-02
      -2.42318083e-02 -2.11747102e-02 -3.04329842e-02 -5.71352504e-02
      3.10562495e-02 -5.21681197e-02 -1.77967045e-02 -2.76073776e-02
      -1.46843540e-02 -6.51723295e-02 -6.00587949e-02 -2.81860940e-02
      -6.30062893e-02 4.86245640e-02 -4.44861054e-02 -3.30207236e-02
      -5.10192029e-02 -5.55954017e-02 1.87507253e-02 -1.03559736e-02
      -1.16116805e-02 -5.28714545e-02 -5.35108671e-02 -1.25577077e-02
      -1.45188160e-02 6.31533423e-03 -1.15061952e-02 1.51431989e-02
      2.53349915e-02 3.60613503e-02 -8.61111004e-03 -1.20680891e-02
      -1.28206909e-02 -1.18044596e-02 -8.62974487e-03 -1.66723598e-02
      -3.93034182e-02 -5.20973057e-02 -1.16320467e-02 -4.45571207e-02
      6.55953288e-02 -2.24597137e-02 -6.58090273e-03 -1.95545256e-02
      -1.70014575e-02 3.41633260e-02 -7.80210923e-03 4.84151021e-02
      -2.61148363e-02 5.57630956e-02 -1.39701255e-02 2.11417377e-02
      1.09595284e-02 3.13478932e-02 -2.00577988e-03 -2.10432392e-02
      1.49834398e-02 1.77411363e-02 -1.50864450e-02 1.43524604e-02
      5.03374590e-03 -2.94380244e-02 -3.05361697e-04 -1.41512230e-02
      1.07671786e-02 6.75550476e-02 5.09738177e-02 -1.16214762e-02
      5.42251803e-02 3.88326086e-02 -1.41798565e-02 3.48720625e-02
      4.93774265e-02 -3.71983498e-02 3.90571244e-02 -3.39881703e-02
      -9.69362911e-03 -4.12869304e-02 2.63495408e-02 -1.01833483e-02
      4.11182381e-02 4.34430949e-02 3.53108682e-02 7.20165074e-02
      6.60637114e-03 4.70486544e-02 -1.07779345e-02 4.24682721e-02
      -1.06464215e-02 1.96411321e-03 9.56224930e-03 -2.70772818e-02
      6.44032508e-02 1.46200070e-02 -1.04298055e-01 -5.46021312e-02
      -1.02932677e-02 -7.06608891e-02 5.32947434e-03 2.94804554e-02
      2.41381768e-02 9.88038331e-02 3.98750678e-02 -7.45913461e-02
      -2.70500854e-02 3.42616476e-02 -3.07396613e-02 -4.04094206e-03
      3.45628969e-02 5.20833768e-02 6.85258284e-02 -5.15446812e-02
      2.97537539e-02 -3.81571315e-02 3.43054347e-02 -4.20279875e-02
      -2.32430529e-02 3.02779656e-02 6.67562410e-02 9.51141864e-02
      -1.62956510e-02 8.70313495e-02 9.13784839e-03 7.05415606e-02
      2.15001423e-02 1.86715126e-02 -8.62173329e-04 -3.20089934e-03
      7.79080316e-02 -1.57700311e-02 -9.97639745e-02 -4.83235344e-02
      5.71290180e-02 -4.55570519e-02 -1.26531366e-02 -3.22597139e-02
      -7.24941085e-04 6.30261004e-02 -7.51903234e-03 -5.63618131e-02
      6.30227942e-03 6.31218553e-02 4.87902958e-04 9.76924598e-03
      -1.13061685e-02 3.03927492e-02 5.22534475e-02 -7.96490982e-02
      4.80957069e-02 -2.83251554e-02 2.26611551e-02 -3.64036337e-02
      -3.80311050e-02 4.54178117e-02 6.02802970e-02 8.41175765e-02
      -1.94866918e-02 7.69999027e-02 -8.99685547e-03 9.70925316e-02
      -1.77929904e-02 -1.59253424e-03 -3.19604315e-02 -3.62440646e-02
      -2.73605081e-04 -5.43916486e-02 -8.27789307e-02 -2.75931824e-02
      1.61313619e-02 -5.07972576e-02 -3.15831266e-02 2.81832889e-02
      3.50349061e-02 5.51946573e-02 1.84232704e-02 -1.68966886e-03
      7.43247219e-05 1.15249433e-01 -8.17492604e-03 4.94264672e-03
      9.43506323e-03 -4.06534923e-03 3.31182331e-02 -5.64097725e-02
      4.55494933e-02 -3.50687765e-02 8.26809108e-02 -3.04682627e-02
      -2.79787066e-03 1.13243796e-02 3.17058451e-02 9.07210857e-02
      5.13954535e-02 1.03529409e-01 -1.05382204e-02 5.99350333e-02
      -2.73471083e-02 2.49057841e-02 -1.37239015e-02 -1.95958484e-02
      -1.20685482e-03 -3.90328169e-02 -3.55144776e-02 -3.31720226e-02
      5.08197062e-02 -5.05667217e-02 -4.08721343e-02 -1.00817168e-02
      -2.30433443e-03 5.68427257e-02 6.48004422e-03 2.19884794e-02
      4.35828697e-03 2.58485246e-02 -2.24140100e-02 -2.68385727e-02
      9.79536306e-03 4.99216514e-03 2.79630125e-02 -2.48496383e-02
      9.58999917e-02 -6.36116266e-02 -2.03918889e-02 -4.31029275e-02
      -1.83083001e-03 5.85146016e-03 5.75333461e-03 3.47465649e-02
      -6.62348121e-02 9.52708200e-02 -1.47193661e-02 3.42756286e-02
      1.20114796e-02 -1.45689596e-03 -3.61972600e-02 -1.98051315e-02
      3.60322483e-02 -1.62334628e-02 4.47366619e-03 -3.10404934e-02
      -1.18054897e-02 -3.99848111e-02 -1.62390200e-03 9.60126333e-03
      -2.74585728e-02 4.72607203e-02 -1.86041482e-02 2.75001172e-02
      2.28461828e-02 5.75187840e-02 9.64276679e-03 3.25760506e-02
      1.70786139e-02 2.26501524e-02 5.49740046e-02 -5.21644913e-02
      1.04169577e-01 2.30784435e-02 8.15107524e-02 1.36601720e-02
      -2.95007937e-02 1.13575766e-02 3.96195315e-02 8.27190503e-02
      1.94088034e-02 9.55581293e-02 -3.22957486e-02 5.27825020e-02
      1.73690554e-04 1.27663342e-02 1.18364599e-02 1.64243095e-02
      3.13174352e-02 -3.29864919e-02 1.38159990e-02 9.56819300e-03
      3.66561562e-02 -2.96524093e-02 -1.59101374e-02 1.80640947e-02
      3.36615816e-02 4.53950763e-02 2.38817069e-03 2.15665605e-02
      6.58338983e-03 3.86213847e-02 -1.36073362e-02 -4.12012218e-03
      3.35458592e-02 1.11281788e-02 5.69818951e-02 -4.80876602e-02
      3.24221216e-02 -8.38881359e-02 3.42866704e-02 -3.74189066e-03
      3.74130569e-02 2.71446835e-02 2.40086131e-02 6.77738711e-02
      -4.81223874e-02 5.18415049e-02 -3.98419723e-02 3.47171351e-02
      3.18840641e-04 4.51979302e-02 4.29453738e-02 -5.74476831e-03
      -2.94283871e-03 -4.16127741e-02 1.03843594e-02 -3.64123210e-02
      3.70278396e-02 -2.40062713e-03 5.07052019e-02 4.73172888e-02
      1.00745074e-02 5.51684480e-03 -2.69065760e-02 9.93631547e-04
      -1.54612660e-02 5.11929505e-02 -1.06955236e-02 6.44525141e-02
      7.14639109e-03 2.16566175e-02 4.19609062e-02 -7.34424591e-02
      2.23326385e-02 -5.68620823e-02 3.48297991e-02 -8.75602383e-03
      5.24475798e-03 4.52835523e-02 3.28855962e-02 6.25429824e-02
      -1.85343642e-02 1.20496102e-01 -2.16973722e-02 8.75736251e-02
      2.57969778e-02 3.79799828e-02 -2.08193213e-02 5.69910044e-03
      2.19369568e-02 -3.05239204e-02 -4.38325666e-02 -4.44652699e-02
      8.61844607e-03 -6.82480168e-03 -1.27506899e-02 3.03151924e-02
      3.52944061e-02 1.93707198e-02 -2.34742872e-02 5.44115296e-03
      1.98457912e-02 3.96522470e-02 5.31861857e-02 1.25760324e-02
      5.70845269e-02 -6.34674728e-03 -2.71179024e-02 -4.69529554e-02
      8.82627964e-02 -2.68066414e-02 2.25508064e-02 -8.43295548e-03
      2.25384124e-02 4.54202406e-02 9.90066491e-03 -1.83307042e-03
      1.98145094e-03 8.65742341e-02 4.24456559e-02 5.72766783e-03
      -2.08108220e-03 2.40698587e-02 1.12162381e-02 -2.27823444e-02
      -5.17424010e-02 -8.16427097e-02 -2.62311809e-02 -3.45051177e-02
      -1.57157797e-02 -1.06720366e-02 4.89691412e-03 2.14527287e-02
      1.26812300e-02 -8.40331707e-03 -1.28853815e-02 -7.50221545e-03
      1.85274240e-02 -3.94321010e-02 -2.74144602e-03 -1.37919211e-03
      -2.39567691e-03 -4.94170375e-02 -4.25991081e-02 -5.79462461e-02
      3.97133902e-02 7.26486614e-04 1.68725830e-02 -2.52392944e-02
      -4.60828515e-03 9.24908265e-04 2.40961066e-03 -1.34650255e-02
      -4.28349227e-02 3.34041603e-02 -3.79405804e-02 1.36112804e-02
      4.19579856e-02 -1.00490823e-02 7.00291805e-03 -3.55737447e-03
      -2.01555411e-03 -1.36514269e-02 -2.54021976e-02 2.18245201e-03
      -1.51124382e-02 2.94189551e-03 -2.56561637e-02 3.53799984e-02
      3.17764245e-02 2.05757208e-02 -3.43538262e-02 -1.51094887e-02
      5.97308995e-03 5.06333411e-02 7.65438005e-02 2.74404348e-03
      -6.92849457e-02 2.50039678e-02 1.88237261e-02 -4.21769358e-02
      9.10827518e-02 -6.80833682e-02 1.71331968e-02 4.02398482e-02
      -7.59427026e-02 -4.05541286e-02 4.74661961e-02 -1.58548099e-03
      -3.00163552e-02 1.29786745e-01 -2.72535328e-02 -1.00839417e-02
      5.60993096e-03 -5.04552238e-02 -5.19150160e-02 5.81496879e-02
      3.92963141e-02 -2.92500127e-02 2.76571680e-02 -2.77199484e-02
      5.21959998e-02 4.76982780e-02 -6.03081286e-02 -2.52254177e-02
      6.48593307e-02 1.18971476e-02 -4.62525617e-03 2.96965539e-02
      -2.84516476e-02 7.73919187e-03 3.33891213e-02 -2.64771245e-02
      -4.44236323e-02 3.07980403e-02 2.86777634e-02 -5.35057448e-02
      -8.70827064e-02 -2.08795629e-02 3.19132656e-02 2.67163496e-02
      7.82021787e-03 -1.01597100e-01 -1.73524227e-02 1.99678224e-02
      -3.80381756e-02 -7.79596791e-02 -4.78917919e-02 -2.03338861e-02
      -2.43856702e-02 -8.16092566e-02 -4.74004447e-03 1.26551222e-02
      -9.22411040e-04 -3.98384258e-02 -3.04146819e-02 -2.10475363e-02
      9.95906629e-03 4.12344635e-02 2.29219254e-02 -8.16555768e-02
      3.64877731e-02 4.83893640e-02 7.11493986e-03 -4.47379313e-02
      -2.17686594e-02 -6.93082670e-03 -8.91696103e-03 -9.49599370e-02
      -7.88622051e-02 9.54845920e-03 2.50521898e-02 1.70159377e-02
      -4.38411236e-02 -3.49081978e-02 2.15962082e-02 -1.41499424e-02
      -8.48712996e-02 -7.08605647e-02 2.23794393e-02 4.58802097e-03
      2.00573374e-02 -6.35460541e-02 -2.34273430e-02 2.21670116e-03
      -5.66346059e-03 -6.18905798e-02 -3.06895524e-02 3.97324599e-02
      2.82808766e-02 4.70477045e-02 -7.99225122e-02 -6.47589415e-02
      3.25859301e-02 5.02041318e-02 -2.03858651e-02 -5.90183921e-02
      3.84192169e-02 2.73923408e-02 2.98157409e-02 -3.19275074e-02
      -2.23794505e-02 4.41378579e-02 5.64547330e-02 -6.40965719e-03
      -8.61087255e-03 1.48472246e-02 -2.52683479e-02 -4.17938009e-02
      -6.15973957e-02 -2.52133030e-02 -1.11862388e-03 -3.48588428e-03
      -4.51095961e-02 -1.60099678e-02 -1.61018886e-03 1.08230645e-02
      1.09025379e-04 -1.55885778e-02 -4.69310805e-02 -2.98439953e-02
      -6.51824400e-02 -7.62947872e-02 1.08535560e-02 7.45503232e-02
      3.56520489e-02 1.01724649e-02 -4.76454943e-02 -2.13280581e-02
      5.79378917e-04 -2.41470542e-02 -2.10200977e-02 3.47356610e-02
      5.61550967e-02 7.40720937e-03 -3.68550569e-02 -5.75633384e-02
      -5.72468108e-03 -2.06994433e-02 -7.67137259e-02 -2.35604569e-02
      7.67343910e-03 -3.09560318e-02 3.22713628e-02 8.13621357e-02
      2.62422003e-02 3.16784009e-02 -1.16665354e-02 -4.30091880e-02
      -2.67574228e-02 -4.32820283e-02 -5.01201563e-02 4.91766371e-02
      8.43546540e-02 2.53573526e-02 2.04629600e-02 3.21259350e-03
      -3.25790159e-02 1.95042025e-02 2.64310595e-02 -8.47951397e-02
      -1.20552681e-01 -3.26388925e-02 -7.51856901e-03 2.04784758e-02
      3.55368154e-03 -1.35853887e-02 2.16514673e-02 -7.58764446e-02
      -1.79648742e-01 -7.80132487e-02 8.75446759e-03 3.82896587e-02
      1.95044000e-02 3.21151949e-02 4.54830155e-02 5.52566834e-02
      -6.23555891e-02 -1.06212482e-01 4.78402302e-02 4.48110476e-02
      -5.53872585e-02 -2.61810720e-02 -4.09053965e-03 -2.55940091e-02
      2.14622319e-02 -3.72955054e-02 -3.65201347e-02 1.48807690e-01
      8.43599215e-02 -4.20594588e-02 -1.21576721e-02 4.94368337e-02
      1.38272727e-02 4.25363630e-02 -9.86675248e-02 -2.01549903e-01
      3.14375497e-02 3.46249379e-02 -1.66727658e-02 -2.58936267e-02
      1.13818292e-02 2.04593018e-02 7.95658305e-02 -3.81727554e-02
      -6.65865093e-02 1.12365201e-01 1.57741159e-02 -1.99030619e-02
      -9.69044399e-03 1.20824799e-02 3.30010690e-02 3.52257937e-02
      -4.73582670e-02 -6.48051277e-02 6.29417822e-02 4.48177569e-02
      -6.56101555e-02 -6.15670457e-02 -5.09934453e-03 -7.31709152e-02
      -1.85009670e-02 -3.64374407e-02 -5.06644286e-02 2.29723845e-02
      1.32560059e-02 -4.84951511e-02 8.80401768e-03 2.15805899e-02
      -7.40898773e-02 1.50853861e-02 -1.51881520e-02 -8.58845413e-02
      1.07480977e-02 -3.05761304e-02 -2.95999721e-02 -4.57503609e-02
      -3.79138105e-02 -2.10346133e-02 7.74762928e-02 2.96549853e-02
      -4.72037345e-02 1.93997612e-03 -2.14281920e-02 -3.28224041e-02
      8.70015239e-04 5.02771512e-03 -1.65853966e-02 8.61734077e-02
      -2.06654239e-02 -6.00585230e-02 9.54872929e-03 -1.34919565e-02
      -3.85600887e-02 2.22570496e-03 -4.12650930e-04 -9.71399397e-02
      -2.14852374e-02 6.21022144e-03 -5.70026739e-03 2.46749688e-02
      3.71595956e-02 1.94088742e-02 3.53078507e-02 4.78195436e-02
      -1.85264423e-02 9.34651063e-04 -2.78711710e-02 -1.17230780e-01
      1.05448440e-03 -1.87377781e-02 -4.54737432e-02 -2.27294415e-02
      -3.53469029e-02 -5.27168252e-02 4.26896960e-02 -4.37428132e-02
      -7.03598112e-02 1.27034988e-02 2.60441210e-02 -1.76821593e-02
      1.88571662e-02 6.23199483e-03 -1.48432637e-02 -1.07154185e-02
      -2.84080524e-02 -2.45771520e-02 -6.66150264e-03 -1.91333331e-02
      7.19696656e-03 2.76253596e-02 2.86860690e-02 -3.12223081e-02
      -5.03174551e-02 3.07520218e-02 -1.39080882e-02 3.26071642e-02
      -7.95168802e-03 -1.78370520e-03 3.06673609e-02 -6.35868497e-03
      -2.57395338e-02 1.56443119e-02 -8.62889513e-02 -6.90146834e-02
      -7.31593650e-03 -9.12653003e-03 -5.97750535e-03 -9.09063779e-03
      -1.08071063e-02 -5.02907038e-02 -1.38735138e-02 -6.96052536e-02
      -3.48351970e-02 9.69115645e-03 -3.05084754e-02 -6.42039180e-02
      -5.98040856e-02 -4.53598797e-02 -6.92028999e-02 -7.40343854e-02
      3.75005193e-02 -3.63091449e-03 4.32978868e-02 -1.87069755e-02
      -4.16733883e-02 -1.21685909e-02 3.71202603e-02 -1.64086688e-02
      2.25069113e-02 3.35097164e-02 -2.25989800e-02 6.58005923e-02
      1.22271599e-02 -2.84695178e-02 3.53438966e-02 8.85250494e-02
      5.00209592e-02 7.14262202e-02 -4.27227020e-02 -3.15146819e-02
      -1.79710553e-03 -7.28621781e-02 -1.49815857e-01 -1.06865510e-01
      -5.54358959e-02 -9.80170667e-02 -5.79318143e-02 -3.58530246e-02
      2.14272458e-02 3.77960205e-02 -5.08524776e-02 -1.44332677e-01
      -8.69684443e-02 3.97664718e-02 -2.33645248e-03 -1.28191924e-02
      2.49038991e-02 4.16156324e-03 4.98800874e-02 1.96380932e-02
      -6.52755192e-03 1.52238039e-02 4.83581461e-02 1.53013673e-02
      3.08574475e-02 4.13419418e-02 4.07254286e-02 7.90114924e-02
      5.45761436e-02 2.68292520e-02 -7.04087364e-03 3.31710204e-02
      -4.32559708e-03 2.95936074e-02 -2.78706700e-02 -4.04289216e-02
      5.56269027e-02 1.61464643e-02 -8.08094814e-02 -3.92293446e-02
      5.23856170e-02 2.63452716e-02 1.43198315e-02 -8.28406401e-03
      -2.73291022e-02 5.65464348e-02 2.49641426e-02 -3.14036161e-02
      -2.04698574e-02 5.48813343e-02 3.47940363e-02 4.62502358e-04
      5.52618504e-02 1.09919608e-02 4.81828116e-02 2.25424170e-02
      2.54605748e-02 -1.33522404e-02 5.46587333e-02 2.13743821e-02
      6.94610924e-02 5.55002876e-02 2.55649351e-02 3.76554281e-02
      1.09581109e-02 3.15020084e-02 1.44711826e-02 5.10079041e-02
      4.96750176e-02 7.54402950e-02 -8.80573504e-03 -4.03198786e-02
      7.85440579e-03 -4.79919948e-02 -9.02771279e-02 -8.55825320e-02
      2.87850741e-02 8.35750252e-03 4.01185714e-02 1.03623439e-02
      -3.01363673e-02 3.23357545e-02 -3.10420208e-02 -1.03995562e-01
      -6.19012788e-02 2.58028600e-02 7.40126371e-02 1.93572808e-02
      -1.65346975e-03 -2.69426336e-03 2.98237167e-02 2.55381968e-03
      -7.89470691e-03 -1.83890713e-03 5.00031002e-02 2.64314208e-02
      4.03917469e-02 5.10629639e-02 8.71850178e-03 2.47016549e-02
      1.67685486e-02 4.72573303e-02 6.42191097e-02 6.81888312e-02
      5.68583459e-02 8.25438723e-02 -2.72555687e-02 -2.40646284e-02
      2.07318570e-02 -4.17999625e-02 -6.76578432e-02 -6.38164207e-02
      2.18480397e-02 2.98765823e-02 2.72322055e-02 -1.15013672e-02
      -4.30450067e-02 -2.22942587e-02 -1.14511102e-02 -6.22981340e-02
      -4.75384966e-02 2.85614915e-02 9.65894293e-03 -1.02378626e-03
      4.08266373e-02 1.71109021e-03 -1.59453191e-02 -3.08844522e-02
      2.65380610e-02 2.35405080e-02 6.00973377e-03 8.90216045e-03
      6.08409829e-02 3.53976972e-02 5.39290048e-02 5.53044416e-02
      4.43546921e-02 7.09981322e-02 7.62191266e-02 2.58718412e-02
      2.74632853e-02 2.66943350e-02 -8.28038249e-03 -6.94760606e-02
      -7.03642145e-02 -7.69551918e-02 -7.96692520e-02 -9.46132690e-02
      -4.94805239e-02 -5.45589291e-02 -2.75271721e-02 -2.94007957e-02
      -6.05024472e-02 -2.89453492e-02 -5.82568198e-02 -4.15961593e-02
      -8.13653693e-02 -7.69496262e-02 -6.88614473e-02 -9.23827011e-03
      -3.38304718e-03 2.01472063e-02 4.65057651e-03 4.07802202e-02
      1.70019306e-02 -6.72804378e-03 -3.55672799e-02 -2.08149906e-02
      -5.01166992e-02 1.45515837e-02 5.40098883e-02 3.07645835e-02
      3.71810347e-02 5.01337275e-02 2.15778146e-02 3.85101922e-02
      2.48851962e-02 -4.68574576e-02 -5.21660484e-02 -4.87868786e-02
      -4.94309738e-02 -5.36449887e-02 -6.03655651e-02 -1.21103615e-01
      -1.21136211e-01 -9.85152051e-02 -6.35653511e-02 2.20244061e-02
      7.75637776e-02 3.92828137e-02 2.57666316e-02 -7.55708944e-03
      -4.38046455e-02 -1.85159184e-02 -9.73219110e-04 -1.13751749e-02
      -5.58944978e-02 7.92160332e-02 2.33050603e-02 -3.28587219e-02
      1.89080965e-02 -2.19426788e-02 3.59961912e-02 8.14089458e-03
      -8.06759447e-02 -2.07498372e-02 6.67346641e-02 1.24388449e-02
      -4.35138345e-02 1.54358498e-03 -3.81379128e-02 1.45823434e-02
      3.42696011e-02 -3.31920572e-02 -4.89442572e-02 9.06197354e-02
      4.30085473e-02 -2.62834621e-03 2.47753654e-02 -3.55299488e-02
      1.06663415e-02 2.51521673e-02 -4.46644872e-02 2.73425262e-02
      7.89024904e-02 7.94506539e-03 -4.63785566e-02 5.29288035e-03
      1.20612094e-02 2.32026391e-02 7.22618774e-02 5.34846261e-02
      -1.62286647e-02 6.70960452e-03 -2.78524105e-02 -9.80367064e-02
      -4.03329916e-02 -9.36976075e-03 8.58116895e-03 2.16140151e-02
      8.80973507e-03 -9.54335183e-02 2.22709551e-02 -1.60451606e-02
      -5.03469370e-02 -3.35008763e-02 -3.47932391e-02 2.10279934e-02
      1.51442538e-03 -1.07014030e-01 -6.26117215e-02 1.66463889e-02
      2.91855317e-02 -2.29404960e-02 -1.59846935e-02 -5.31349843e-03
      1.06897671e-02 2.02469211e-02 -8.03558752e-02 -5.61494641e-02
      3.71150076e-02 7.47208716e-03 -2.30822284e-02 -1.17954956e-02
      -4.89848554e-02 3.27834822e-02 2.53656562e-02 -1.23686016e-01
      2.39268783e-02 5.68776242e-02 -1.11725656e-02 2.48076059e-02
      -1.36523740e-02 4.93017584e-02 7.88899288e-02 1.10032625e-01
      5.11872545e-02 -9.76482108e-02 -7.29660839e-02 -5.82495145e-02
      -2.68461136e-03 -1.19342776e-02 9.74681415e-03 2.16189539e-03
      6.84171468e-02 -8.74274410e-03 1.72369257e-02 -5.20872138e-02
      -2.26847291e-01 -1.77037224e-01 -8.53144750e-02 1.85413053e-03
      6.45479262e-02 1.22870527e-01 4.51272130e-02 -1.29135549e-01
      -2.10759610e-01 -2.54499048e-01 -1.59996107e-01 -6.74297437e-02
      3.90265952e-03 9.73219518e-03 5.88377677e-02 -3.29068154e-02
      -5.62732667e-02 2.05552280e-02 5.52446209e-02 4.33275364e-02
      1.55573562e-02 2.92996634e-02 -2.62763388e-02 -4.65742573e-02
      -7.90142566e-02 5.04045226e-02 7.50090182e-02 5.64464647e-03
      -5.88457473e-02 -1.52493641e-02 2.44776160e-02 -6.31034598e-02
      -1.23663142e-01 -6.08083420e-02 -1.65182352e-01 -1.06573768e-01
      -1.28930835e-02 1.13304462e-02 1.10876458e-02 6.94760773e-03
      -6.38367310e-02 -1.39833331e-01 -1.85221598e-01 -3.32893282e-02
      3.07765859e-03 -7.16512874e-02 -1.22095369e-01 -4.55630198e-02
      -2.05671806e-02 -1.54509470e-01 -2.07689077e-01 -1.57106191e-01
      4.79670316e-02 -1.76637203e-01 -2.87595391e-01 -2.01128691e-01
      -3.86296883e-02 6.03919141e-02 1.34021733e-02 -2.68920735e-02
      7.06486553e-02 -3.57306227e-02 -1.97611496e-01 -1.65827334e-01
      -1.90078709e-02 5.96503653e-02 1.05242647e-01 9.29291174e-02
      9.48584899e-02 1.35243535e-01 5.93985841e-02 -1.24112807e-01
      -2.95754284e-01 -2.38136783e-01 -5.04709743e-02 4.63915552e-04
      -9.76444259e-02 -1.16316155e-01 -9.10762977e-03 9.09462199e-02
      -2.60789432e-02 -8.04666206e-02 1.29633360e-02 1.21470861e-01
      8.94350857e-02 3.17066163e-02 3.24757956e-02 9.96215120e-02
      -8.25112164e-02 -2.26092011e-01 -4.84301336e-02 -3.91087979e-02
      -3.35642062e-02 -3.37681547e-02 -2.87714135e-02 -4.41598780e-02
      3.69771048e-02 -3.22787538e-02 -5.21579236e-02 5.76437376e-02
      -3.77425808e-03 8.61975551e-03 -4.02064919e-02 -4.80987877e-02
      -6.92884549e-02 -9.68231913e-03 2.56589036e-02 -2.79192142e-02
      3.51176336e-02 5.79544008e-02 7.21261948e-02 -2.70185973e-02
      -3.00190039e-02 -4.44921739e-02 5.10206595e-02 3.63436528e-02
      2.32836548e-02 6.51834011e-02 6.50846437e-02 7.32047930e-02
      2.29751617e-02 1.59173515e-02 -4.33239788e-02 -1.04238708e-02
      -3.41586322e-02 -1.19771414e-01 -5.24232571e-04 -1.32670254e-02
      4.72373851e-02 -2.48783231e-02 -4.59215380e-02 -9.47345570e-02
      -2.46412698e-02 -6.29385635e-02 -1.78440809e-01 -4.69399393e-02
      -2.23824605e-02 1.40033839e-02 -3.21490504e-02 -1.23922443e-02
      -7.20135048e-02 1.37567809e-02 4.05723753e-04 -3.10600363e-02
      4.86401916e-02 4.44450304e-02 1.15172431e-01 4.97515872e-02
      3.72494571e-02 -5.21560013e-02 -5.65881934e-03 -2.43319618e-03
      -6.85787573e-02 1.76415741e-02 5.38099073e-02 8.27553049e-02
      5.02204299e-02 4.28116508e-02 1.65395513e-02 4.40602973e-02
      -7.99022764e-02 -2.29071781e-01 -5.74330278e-02 -4.39416692e-02
      1.48880610e-03 -4.15319651e-02 -4.38701808e-02 -6.16615154e-02
      5.84301120e-03 -1.03414051e-01 -1.54081047e-01 4.89304541e-03
      5.29181026e-02 3.00851967e-02 1.76548027e-02 -1.57638807e-02
      -4.80792597e-02 -3.09594441e-03 -1.04975197e-02 -9.12246406e-02
      3.22238021e-02 2.40071788e-02 3.68711650e-02 1.80397313e-02
      1.01082847e-02 2.33625993e-02 7.33522773e-02 -1.60794444e-02
      -4.28492874e-02 7.65898675e-02 8.17160010e-02 4.51576710e-02
      6.71769753e-02 7.12375194e-02 6.87817037e-02 6.11797236e-02
      -1.49520800e-01 -1.49968430e-01 -4.00064252e-02 4.23157141e-02
      2.24056348e-04 -3.60446014e-02 -1.27469189e-02 -9.76734534e-02
      -8.96262750e-02 -1.43137559e-01 -8.77301916e-02 -3.22576985e-02
      2.07657833e-02 -4.30200137e-02 -7.10961521e-02 -8.01975355e-02
      -1.54375449e-01 -1.45158321e-01 1.74761121e-03 -3.52796279e-02
      3.36978510e-02 7.03020915e-02 3.16859260e-02 -2.02661231e-02
      3.81285772e-02 1.66272800e-02 7.23900869e-02 6.56914264e-02
      2.66012624e-02 4.08032723e-02 7.35935345e-02 3.39833386e-02
      1.22669747e-03 4.74075936e-02 1.36404708e-02 3.06861009e-02
      -1.16897292e-01 -5.37456237e-02 2.51936540e-02 2.21791957e-02
      -2.51981001e-02 -6.58521727e-02 -3.04982904e-02 -1.61661506e-01
      -1.74668074e-01 -7.32002482e-02 -2.22402159e-02 4.60783467e-02
      1.37988534e-02 -7.32717216e-02 -6.45022988e-02 2.28188373e-02
      -1.20555915e-01 -9.95492414e-02 6.54950365e-02 -2.02482659e-03
      6.86043203e-02 1.07420281e-01 5.87626211e-02 1.14245871e-02
      5.18267676e-02 -1.63312256e-02 -1.41961090e-02 -2.79843938e-02
      -3.02465782e-02 8.04196075e-02 8.08818117e-02 2.63331700e-02
      3.11763342e-02 9.79890749e-02 -4.83151637e-02 -4.96228859e-02
      -4.55934852e-02 -2.54847500e-02 5.62060475e-02 3.07168122e-02
      -1.38191776e-02 3.11383996e-02 8.98429677e-02 -3.77900191e-02
      -5.62396236e-02 -6.85439855e-02 -6.44803718e-02 5.20799384e-02
      6.23804964e-02 3.26115042e-02 6.10277541e-02 1.17188416e-01
      -1.14949672e-02 -9.43442062e-03 -2.18999293e-02 -5.13886847e-02
      7.29331300e-02 5.93087226e-02 4.89290915e-02 6.46397769e-02
      1.14316635e-01 -5.62752523e-02 -1.21924244e-02 -5.59280440e-02
      -1.21944860e-01 2.54705213e-02 8.99771601e-02 6.22003302e-02
      6.98868483e-02 9.22821239e-02 -3.40840966e-02 -2.93518882e-02
      2.70992219e-02 -7.29263425e-02 2.65993420e-02 4.27519269e-02
      -1.17522655e-02 1.20983487e-02 8.91908184e-02 -1.68406088e-02
      5.51489219e-02 1.52570233e-02 -4.60677408e-02 4.94793840e-02
      1.52349677e-02 -1.25177307e-02 9.74127091e-03 6.59120306e-02
      2.06700750e-02 2.98332870e-02 2.53701098e-02 -1.48321345e-01
      2.62794569e-02 5.94610758e-02 3.86493467e-02 4.63382900e-02
      6.49625659e-02 -2.67461948e-02 2.20894478e-02 -1.31733902e-02
      -7.45081455e-02 7.32903704e-02 3.77793685e-02 1.20946197e-02
      4.71541323e-02 5.80070242e-02 -1.64448414e-02 -4.03537750e-02
      3.25123407e-02 -4.95052023e-04 5.28875142e-02 3.41964960e-02
      5.16798645e-02 4.89081144e-02 9.83879864e-02 3.53302360e-02
      4.72143739e-02 2.03954615e-02 3.61246690e-02 8.48051682e-02
      5.63109778e-02 4.19352837e-02 4.93488386e-02 1.02202803e-01
      2.39251982e-02 9.84740071e-03 -3.03626880e-02 -1.78526398e-02
      9.83680785e-02 6.01818450e-02 5.22626154e-02 5.23215681e-02
      9.13812667e-02 -3.59505303e-02 -5.99591956e-02 -1.08917743e-01
      -8.92055407e-02 3.25410850e-02 2.96108518e-02 7.95227755e-03
      3.14887017e-02 5.49621806e-02 -1.07088611e-01 -1.03348531e-01
      3.24004069e-02 -2.40146997e-03 2.89120488e-02 4.15608771e-02
      5.85062057e-02 3.14138792e-02 5.63568212e-02 1.53215462e-02
      1.94687862e-02 6.78564534e-02 5.83419353e-02 4.67721894e-02
      6.45084381e-02 5.81364296e-02 5.04340790e-02 3.39467600e-02
      2.78018266e-02 7.13701397e-02 -6.18397519e-02 -1.21669300e-01
      -9.46435630e-02 -8.26937780e-02 -1.63928922e-02 -2.21803077e-02
      -1.02586858e-02 -1.11036360e-01 -4.97350581e-02 -5.83765805e-02
      -8.33250657e-02 -8.05341825e-02 -4.55618687e-02 -4.51199934e-02
      -5.61146140e-02 -1.34858768e-02 -8.78425911e-02 -4.02191840e-02
      -1.42696518e-02 9.01754852e-03 -1.03748720e-02 -3.84918787e-02
      -6.96922764e-02 -1.38014525e-01 -6.45664707e-02 -4.92722169e-02
      -2.51174346e-02 8.62030834e-02 1.04231223e-01 9.15804356e-02
      1.15017883e-01 5.15814014e-02 2.91553955e-03 4.75194156e-02
      7.21301585e-02 7.36997053e-02 -1.05232745e-01 -1.14702821e-01
      -7.51141831e-02 -1.11474410e-01 -1.75456613e-01 -2.11454853e-01
      -1.34426907e-01 -1.27106711e-01 -9.64339375e-02 3.99065763e-02
      7.88958967e-02 5.59088998e-02 7.49388188e-02 -3.07749547e-02
      -3.94655466e-02 3.89145501e-03 7.36068860e-02 4.24924940e-02
      -4.71500494e-02 8.32597818e-03 -7.25951325e-03 -2.58747209e-02
      3.37347351e-02 -5.58350869e-02 -9.64882039e-03 1.50676742e-02
      -3.35690007e-02 3.06373816e-02 4.24430631e-02 -1.60350632e-02
      -6.96351528e-02 5.29182144e-03 -1.83527060e-02 1.78969726e-02
      5.62510900e-02 3.90883237e-02 -6.05173856e-02 1.05095934e-02
      -2.06609368e-02 -2.45828051e-02 5.43458872e-02 -3.91159169e-02
      -5.32791242e-02 1.77271739e-02 -6.02538548e-02 1.07140851e-03
      5.54058068e-02 -8.36452935e-03 -6.45864308e-02 4.79793064e-02
      7.04209181e-03 -1.06258057e-02 6.18211590e-02 4.34958115e-02
      -1.02424569e-01 2.61027347e-02 4.46271263e-02 4.53683026e-02
      -4.55752341e-03 3.61494981e-02 4.98070493e-02 3.46574821e-02
      -1.18504584e-01 -1.17721185e-01 4.95456010e-02 4.45361175e-02
      -3.46101634e-02 -5.76749258e-02 -3.73530537e-02 3.59481089e-02
      2.06356235e-02 -1.73071682e-01 -7.87579715e-02 3.16546783e-02
      5.72804958e-02 3.20843309e-02 1.21791577e-02 6.88813329e-02
      9.03833061e-02 3.25338691e-02 -1.02913536e-01 -1.26596585e-01
      1.82043165e-02 4.31353748e-02 -4.68149483e-02 -8.32747594e-02
      -3.72399502e-02 2.20273286e-02 4.77887616e-02 -1.20173544e-01
      1.11320913e-01 4.82798219e-02 -1.33784175e-01 -1.41385585e-01
      -1.17682062e-01 -6.55775219e-02 -1.71350371e-02 8.04821998e-02
      7.46827275e-02 3.39778066e-02 -1.16126701e-01 -1.97588921e-01
      -1.03334568e-01 -4.23979834e-02 -7.11136013e-02 -6.10524938e-02
      3.29114832e-02 7.89704025e-02 1.39552131e-01 1.14421479e-01
      2.16708868e-03 -3.96852121e-02 -1.37797073e-01 -1.85713723e-01
      -1.66960672e-01 2.44420264e-02 1.21548973e-01 7.95626044e-02
      7.25725219e-02 -2.95724720e-02 -2.85617225e-02 -5.76983206e-02
      -1.66772217e-01 -1.97335586e-01 -1.46856546e-01 3.27327177e-02
      -1.02047153e-01 -1.07588328e-01 -3.66697498e-02 1.03937788e-02
      6.56405762e-02 1.99487023e-02 -2.47300118e-02 -9.37626809e-02
      -1.05802067e-01 -2.44194288e-02 -1.34249004e-02 -4.88996468e-02
      -5.33041768e-02 -6.49333885e-03 -6.31530210e-03 -1.13558993e-01
      -1.08669087e-01 -6.69847429e-02 -1.33047059e-01 -1.20085366e-01
      -4.37829196e-02 3.28552835e-02 4.52207960e-02 -1.17580444e-02
      -3.43162678e-02 -1.12919345e-01 -8.48931968e-02 -1.01849914e-01
      -1.71102330e-01 -1.10849261e-01 -4.31361748e-03 -9.86340828e-03
      -3.63651812e-02 -8.31222907e-02 9.23575833e-04 -1.13478694e-02
      7.66067728e-02 -4.55709770e-02 -1.81100294e-01 -1.79373607e-01
      -6.09913059e-02 -9.27324668e-02 -1.68860212e-01 -8.83197412e-02
      2.39001103e-02 1.52170748e-01 8.33523199e-02 1.60266683e-02
      5.49421683e-02 6.41800016e-02 4.15764600e-02 -4.07011323e-02
      7.46879680e-03 9.79317278e-02 1.37308473e-02 -1.07875019e-01
      -1.43991053e-01 -9.33013484e-02 -6.14326634e-02 -1.75001368e-01
      -2.04971477e-01 -5.43395951e-02 6.36479482e-02 1.15670294e-01
      5.77287711e-02 -1.71564389e-02 2.98395008e-02 5.84989786e-02
      3.60040404e-02 -1.40068913e-02 7.26442188e-02 1.48054734e-01
      7.72939399e-02 -1.10034430e-02 1.42261246e-02 3.22265960e-02
      3.79583277e-02 -4.12377007e-02 -3.74780856e-02 -5.66031337e-02
      3.23628224e-02 7.34304339e-02 4.51061204e-02 6.58825487e-02
      6.31224960e-02 1.12113036e-01 5.42203635e-02 1.93778221e-02
      -1.23962611e-02 4.63502333e-02 4.93936762e-02 -4.03974243e-02
      -4.70246188e-02 -2.49492787e-02 3.99485826e-02 4.50241230e-02
      1.56828612e-02 9.99680068e-03 5.42612486e-02 4.56735231e-02
      9.26284119e-03 2.03895979e-02 5.46663776e-02 1.24918222e-01
      9.42755938e-02 1.00664780e-01 2.98526268e-02 5.25596067e-02
      2.03225370e-02 -1.34311114e-02 2.02186629e-02 1.37178740e-02
      5.32807186e-02 -1.51569687e-03 -8.09447933e-03 -3.86278890e-02
      -1.30977742e-02 5.94006069e-02 1.94790564e-03 2.35778522e-02
      3.46068367e-02 5.21906503e-02 2.43640859e-02 1.47118112e-02
      4.64965473e-04 8.88000056e-02 -1.72991734e-02 -1.44668622e-02
      1.72141325e-02 1.21924412e-02 6.43482953e-02 9.70681664e-03
      1.63262524e-02 -1.85425114e-02 2.89354865e-02 7.95247406e-02
      7.45085552e-02 2.77858227e-02 4.92593423e-02 6.49438351e-02
      2.34458335e-02 2.56215893e-02 -1.71327703e-02 6.49713278e-02
      6.24578819e-02 -4.48538102e-02 -1.90992802e-02 -4.28948365e-02
      -3.47029157e-02 -3.42513174e-02 -2.66077500e-02 1.04506649e-02
      8.25412571e-02 4.21855599e-02 5.40087931e-03 -1.01883207e-02
      -1.65260304e-02 -7.08412826e-02 -3.56321335e-02 -2.61186603e-02
      3.18040438e-02 6.83312714e-02 7.31552988e-02 3.28728780e-02
      -4.83667776e-02 -2.76284162e-02 -1.03665488e-02 6.83724461e-03
      2.44557299e-02 -4.68045697e-02 6.78359792e-02 6.13647252e-02
      2.98878867e-02 -3.83115299e-02 -5.25518730e-02 -7.34075010e-02
      3.91117893e-02 3.38931270e-02 2.69006938e-02 4.87510525e-02
      7.34029338e-02 -4.71089175e-03 -2.08986998e-02 -6.83273599e-02
      -7.93745071e-02 -1.01345405e-01 -2.94332709e-02 -2.33790949e-02
      7.18941092e-02 8.98783579e-02 3.40489671e-02 3.74566913e-02
      -2.47733854e-02 -6.18946888e-02 -5.26004992e-02 1.39634684e-02
      -1.17647322e-02 9.32402164e-02 8.67478698e-02 2.03619152e-03
      -5.60120270e-02 -1.25784770e-01 -1.03019685e-01 -4.17835005e-02
      1.47842767e-03 2.16898578e-03 5.33902682e-02 1.06818758e-01
      1.54369529e-02 -1.32319368e-02 -5.05730473e-02 -6.77443892e-02
      -1.17091769e-02 3.17869261e-02 2.48147640e-02 7.57114291e-02
      9.82126221e-02 -1.43059855e-02 3.97579819e-02 4.93015908e-02
      1.01604154e-02 -2.16146633e-02 6.08140454e-02 -2.39012297e-02
      5.76421656e-02 -4.06076461e-02 -9.22269821e-02 3.32346633e-02
      1.96029060e-02 1.19664809e-02 1.38503546e-02 3.96359041e-02
      -7.77035803e-02 -1.25250211e-02 4.70105261e-02 -1.50176212e-02
      3.59977856e-02 -3.81085300e-03 3.17046489e-03 2.43211016e-02
      4.27784882e-02 -1.97176393e-02 8.51739794e-02 -1.71622261e-02
      -3.81800830e-02 4.02743369e-02 1.15943735e-03 -5.65709546e-03
      4.40109940e-03 2.56453622e-02 -8.85839611e-02 -4.42539640e-02
      2.34880913e-02 -6.94027618e-02 7.43486732e-02 3.97385806e-02
      3.83570977e-02 4.63066697e-02 8.21490586e-02 -3.17009240e-02
      4.62634675e-02 -2.97653973e-02 -1.42648816e-01 -2.59490274e-02
      5.18432371e-02 1.40047511e-02 2.51500923e-02 1.56602431e-02
      -8.38758349e-02 -4.48687561e-02 4.53378446e-02 3.75753711e-03
      9.67720672e-02 5.05394004e-02 2.18904242e-02 4.35086004e-02
      4.92662527e-02 -4.67352681e-02 1.46429045e-02 -2.63400991e-02
      -7.54045546e-02 4.00118791e-02 6.94455951e-02 1.54349711e-02
      5.69454841e-02 -1.46115785e-02 -1.29096448e-01 -2.21430566e-02
      5.39086647e-02 -1.08996831e-01 2.13728435e-02 4.41783108e-02
      -2.91199470e-03 3.41303609e-02 4.84423190e-02 -6.18299879e-02
      3.28054838e-02 2.54765656e-02 -4.13552336e-02 7.64524192e-02
      4.05454002e-02 4.01690342e-02 5.29231131e-02 6.57636449e-02
      -3.63813676e-02 1.06105953e-02 3.70800830e-02 -3.84007096e-02
      5.58426380e-02 5.98356016e-02 -1.38808193e-03 6.92860261e-02
      3.60265225e-02 -1.49292111e-01 4.56741713e-02 -1.42912939e-02
      -2.07777824e-02 7.46410042e-02 5.79185970e-02 2.23836098e-02
      5.50628267e-02 9.15310383e-02 -5.09158932e-02 -2.79712287e-04
      3.12276017e-02 -1.76798436e-03 7.51960948e-02 8.26998800e-02
      6.86736852e-02 6.61785454e-02 8.50958005e-02 3.88144143e-02
      8.90324998e-04 -6.62415326e-02 -7.51115978e-02 3.44142690e-02
      8.36538449e-02 6.63354993e-02 3.16604786e-02 1.08386949e-02
      -5.76410927e-02 -4.20221500e-02 -3.67640220e-02 2.75676958e-02
      1.05392143e-01 7.44637623e-02 4.91933189e-02 5.06674238e-02
      7.54814222e-02 2.56571323e-02 2.85792705e-02 -6.29259422e-02
      -4.93646637e-02 4.40319777e-02 5.96227311e-02 2.92308033e-02
      1.20242918e-02 8.31140671e-03 -5.07709645e-02 -2.71688998e-02
      -1.68874636e-02 -6.03610277e-02 -1.97556820e-02 -1.57546420e-02
      7.13416636e-02 -8.17795005e-03 2.05711368e-02 -4.35479879e-02
      -1.58118904e-02 -1.89736634e-02 -6.82023764e-02 -1.75751932e-02
      2.97483359e-03 -6.53079292e-03 -1.70538127e-02 3.62270959e-02
      -4.04229164e-02 -3.03834304e-02 -4.22552638e-02 -4.42260318e-02
      2.60094088e-02 1.15988869e-02 4.52401750e-02 -3.86642739e-02
      -4.02674749e-02 -5.07511906e-02 -2.35359948e-02 -4.14752215e-02
      -1.83818843e-02 3.48706767e-02 -1.01208607e-05 -1.71474740e-02
      1.97393745e-02 4.74167196e-03 -6.44464940e-02 -4.55133654e-02
      -6.41308948e-02 -9.43509564e-02 -6.09383062e-02 -1.37388915e-01
      -2.22051278e-01 -2.17900708e-01 -5.94599545e-02 -6.99393451e-02
      -5.20583279e-02 9.42557156e-02 1.18772291e-01 8.74583498e-02
      9.62012261e-02 -3.45947556e-02 5.23680449e-02 7.59767890e-02
      1.05944775e-01 9.35484767e-02 -9.75887403e-02 -6.78962618e-02
      -4.74247895e-02 -1.85007408e-01 -1.96855694e-01 -9.98329669e-02
      -1.14502292e-02 -6.80622756e-02 -7.44759217e-02 8.85834470e-02
      1.11980714e-01 7.77426064e-02 4.26188000e-02 -1.07280221e-02
      1.32055879e-01 1.46574125e-01 1.50602698e-01 8.87923837e-02
      -3.12440284e-02 4.85071242e-02 -2.26098709e-02 -6.50910959e-02
      -3.35848471e-03 -4.51337807e-02 -2.60235537e-02 5.66444136e-02
      -3.84318866e-02 1.15037588e-02 8.52688178e-02 9.48806200e-03
      -3.70195918e-02 1.23825064e-02 -3.92679609e-02 -1.49434283e-02
      4.69179004e-02 2.50667538e-02 -2.57587414e-02 6.75512254e-02
      -2.95264330e-02 -6.01672269e-02 -3.83066254e-05 -3.80825214e-02
      7.97131564e-03 7.79439285e-02 -1.18850255e-02 3.13601792e-02
      6.87735900e-02 -1.16201956e-02 -1.68165304e-02 1.18126255e-02
      -2.17411648e-02 1.22888247e-02 7.71609172e-02 4.06973511e-02
      -5.64428493e-02 1.94998085e-02 3.56824632e-04 -3.02302279e-02
      -2.24409555e-03 -2.56594829e-02 3.81525531e-02 1.67185795e-02
      -6.15550801e-02 -1.06497228e-01 2.04127841e-02 1.98297612e-02
      -7.55227432e-02 -2.01289933e-02 -5.83513267e-02 8.50951485e-03
      7.39189535e-02 -8.42541307e-02 -1.86542086e-02 4.32302337e-03
      -2.50996780e-02 -4.08999175e-02 -4.15388942e-02 -1.19540155e-01
      -1.15517685e-02 9.28960927e-03 -5.13202362e-02 -7.85954744e-02
      -1.03089558e-02 -4.82048513e-03 -6.03060536e-02 -2.19006389e-02
      -7.66291544e-02 -3.56395841e-02 2.00003535e-02 -7.18110651e-02
      2.42439769e-02 8.48518014e-02 5.40747084e-02 1.57594141e-02
      -8.84137228e-02 -1.49995431e-01 -1.93913683e-01 -1.46802748e-02
      2.98255533e-02 -7.08164051e-02 6.59636408e-03 -6.62169699e-03
      8.66014790e-03 -5.79611100e-02 -1.70593068e-01 -2.54206002e-01
      -2.29325637e-01 -1.30601048e-01 4.59634177e-02 8.52116868e-02
      8.52867439e-02 4.47500683e-02 5.52896084e-03 9.63892508e-03
      -2.09860653e-02 6.86836094e-02 3.02317776e-02 -3.94347981e-02
      3.05026229e-02 5.67185208e-02 -3.79917416e-04 -2.54016835e-02
      -2.84094196e-02 -3.78699042e-02 -6.71752021e-02 -9.11592171e-02
      -2.10336521e-01 -1.61716640e-01 -3.02051287e-02 6.00561872e-02
      5.93483709e-02 3.85375805e-02 -6.10959437e-03 -7.93359280e-02
      -1.38012499e-01 -1.85568362e-01 -2.36475319e-01 -1.18052885e-01
      3.31918858e-02 4.52899933e-03 -8.50730538e-02 -9.79973227e-02
      1.32719637e-03 -3.52264419e-02 -1.01875141e-01 -6.37875348e-02
      4.56665158e-02 2.65715607e-02 6.80501433e-03 5.58704287e-02
      5.28832711e-02 3.49394642e-02 -6.58249334e-02 -6.76838681e-02
      -9.73651111e-02 -3.00766211e-02 3.90327419e-03 -2.04329360e-02
      -5.91236502e-02 -1.07840868e-02 8.72841328e-02 4.65572476e-02
      8.21231748e-04 -1.26356438e-01 -8.96080360e-02 9.91908647e-03
      -8.11700709e-03 -2.20207319e-01 -2.91565329e-01 -1.09152712e-01
      7.30401352e-02 1.22033015e-01 3.60537432e-02 1.71074905e-02
      8.38924646e-02 1.19402118e-01 2.67186482e-03 -8.32301453e-02
      -2.63807848e-02 9.17947665e-02 6.87813386e-02 1.92801729e-02
      1.96361374e-02 4.71094996e-02 -3.86254862e-02 -1.99637592e-01
      -3.00582290e-01 -1.61969319e-01 6.12400472e-02 1.40361190e-01
      1.19963370e-01 8.01841021e-02 1.01982467e-01 5.42024784e-02
      -1.58185568e-02 -1.87781855e-01 -1.90201879e-01 -2.49468200e-02
      5.24868965e-02 -5.00092208e-02 -5.67702428e-02 -1.53171821e-02
      5.95915578e-02 7.92877227e-02 4.84460816e-02 -4.29880060e-02
      1.13143511e-02 1.54660121e-02 -3.53597216e-02 1.32175451e-02
      4.21068370e-02 9.32611749e-02 8.09742287e-02 9.49845240e-02
      1.89195406e-02 4.90945913e-02 2.60027796e-02 -1.11189224e-02
      -4.66198884e-02 -2.48564314e-02 -3.16799395e-02 -8.87528469e-04
      -9.48326513e-02 -2.50530481e-01 -1.14145823e-01 -2.55519971e-02
      -2.58674333e-03 -2.07666792e-02 5.60027361e-03 9.69283923e-04
      4.84675057e-02 8.36400911e-02 -7.43033513e-02 -5.11762351e-02
      1.28883338e-02 -5.30350171e-02 2.34514587e-02 2.15421896e-02
      6.26783445e-02 2.37549003e-02 6.67439178e-02 -3.26700062e-02
      2.72054318e-03 6.86012805e-02 -3.33457114e-03 2.17481889e-02
      3.58908437e-02 6.17927052e-02 5.77639788e-02 4.51319255e-02
      -5.67645282e-02 2.90882238e-03 -3.73405330e-02 -6.44263029e-02
      -3.13439146e-02 -2.57039536e-02 -7.74134509e-03 2.41380967e-02
      2.58374885e-02 -1.16399504e-01 -3.91741693e-02 6.25131186e-03
      -6.26713857e-02 -1.78718660e-02 -2.46979464e-02 -1.12139946e-02
      -1.24608644e-03 -1.04723573e-02 -1.41020998e-01 -5.69893904e-02
      7.40758702e-02 3.84283194e-05 -1.26897488e-02 2.53913202e-03
      5.36243878e-02 4.19209935e-02 3.73081267e-02 -1.02358937e-01
      -2.28874106e-02 4.91773486e-02 6.60882741e-02 5.42868599e-02
      3.33949700e-02 6.69845864e-02 9.90316272e-02 7.82702714e-02
      -7.56846964e-02 3.34304437e-04 -3.98051068e-02 -6.86450154e-02
      -2.79399157e-02 -1.67216808e-02 2.78798034e-05 -3.32323611e-02
      -5.18079586e-02 -2.05516428e-01 -7.89376199e-02 -4.98714671e-02
      -2.75092348e-02 -2.11679358e-02 1.47941960e-02 -9.46530723e-04
      6.20820448e-02 -2.23604627e-02 -1.35987297e-01 -1.16409831e-01
      6.60228282e-02 1.71490554e-02 4.03015278e-02 -1.45480419e-02
      6.88813478e-02 8.55348259e-02 5.45923226e-02 -5.80249131e-02
      6.75966078e-03 5.81490109e-03 -9.54736117e-03 5.66651523e-02
      2.85755959e-03 4.13433760e-02 7.43801966e-02 6.02731407e-02
      -5.71997976e-03 4.40744460e-02 -9.40401703e-02 -8.91574547e-02
      -6.16117101e-03 -1.14248032e-02 -1.36552220e-02 5.74034974e-02
      -1.41145736e-02 -1.36333853e-01 -1.58087194e-01 -1.55710667e-01
      -1.24457784e-01 -1.41208395e-02 -6.71523064e-02 -6.55808225e-02
      1.61924474e-02 2.53273007e-02 -9.34709311e-02 -1.77131861e-01
      -2.17368901e-02 -2.31079739e-02 5.92947751e-02 1.50849139e-02
      6.01088367e-02 8.39110091e-02 7.57691264e-02 -8.07220768e-03
      7.36414790e-02 -2.12221760e-02 -2.07972806e-02 1.01276658e-01
      2.56252456e-02 3.77699398e-02 6.35060295e-02 1.10421978e-01
      9.01199877e-04 3.36418338e-02 -1.48126394e-01 -1.20136917e-01
      1.38500733e-02 -6.13077879e-02 -6.44404963e-02 1.60163380e-02
      4.78030890e-02 -4.28716466e-02 -1.17907941e-01 -6.57321215e-02
      -6.05522878e-02 2.10741051e-02 -4.83251400e-02 -6.68903440e-02
      2.24218313e-02 6.16184399e-02 9.43562482e-03 -6.74578547e-02
      9.18512978e-03 -4.37434688e-02 1.04581654e-01 4.88339886e-02
      1.89374611e-02 4.52019498e-02 8.17661211e-02 -2.96429787e-02
      1.03528341e-02 -4.18553734e-03 -3.52513976e-02 8.77537653e-02
      8.87566879e-02 4.73170355e-02 8.15240219e-02 3.22497487e-02
      -1.17099650e-01 -3.63783948e-02 -1.77814495e-02 -9.68081062e-04
      9.46847126e-02 2.07549930e-02 -3.56390849e-02 2.69884244e-02
      6.29168004e-02 -4.51268293e-02 -3.00185457e-02 -3.08245905e-02
      8.80105328e-03 9.68069211e-02 6.01932742e-02 -4.67444491e-03
      7.55086392e-02 5.85798696e-02 -6.05191216e-02 -6.25026971e-02
      3.78589146e-02 -4.48571444e-02 6.03782572e-02 6.73552677e-02
      3.17307413e-02 6.69633150e-02 1.73806492e-02 -1.33833483e-01
      -2.66730762e-03 -5.03678173e-02 -3.44519690e-02 6.73046261e-02
      3.61352973e-02 -2.50208005e-03 1.42721143e-02 2.83122286e-02
      -7.61442780e-02 -1.24432780e-02 3.67340888e-03 -4.34964709e-03
      7.69684315e-02 3.74934115e-02 -3.78699461e-03 5.21634966e-02
      4.21600752e-02 -4.30109650e-02 -1.84826683e-02 -4.68503247e-04
      5.55287004e-02 1.03729412e-01 3.36016379e-02 -4.72619571e-02
      1.60488691e-02 3.91744860e-02 -9.32682026e-03 -6.67095929e-03
      -5.02715483e-02 -4.90333252e-02 8.54568034e-02 3.37747075e-02
      1.65279787e-02 3.08311917e-02 5.90548478e-02 -6.66355109e-03
      -2.65919585e-02 -7.31599554e-02 -8.02110285e-02 5.90301007e-02
      3.97593230e-02 1.68864022e-03 1.10918293e-02 2.78260279e-02
      -7.04069510e-02 -5.78699075e-02 4.70172465e-02 8.39820206e-02
      1.48312613e-01 4.38084900e-02 1.96768623e-02 4.40260656e-02
      5.59113845e-02 4.31384705e-02 5.17099537e-02 3.60500738e-02
      3.38282920e-02 1.00216791e-01 2.09325142e-02 -1.59430578e-02
      5.45236357e-02 7.74587095e-02 2.48803273e-02 8.91160686e-03
      -6.13848306e-02 -9.84784886e-02 -2.95427609e-02 -1.97100937e-02
      -3.44869085e-02 -8.15641060e-02 -9.85071585e-02 -1.34838283e-01
      -9.15073976e-02 -5.10608368e-02 -7.31611401e-02 -1.54024572e-03
      -2.11678687e-02 -2.55609192e-02 1.42888064e-02 -9.23598632e-02
      -1.43230736e-01 -1.15516394e-01 7.85221998e-03 -1.43274264e-02
      1.86020918e-02 1.34827178e-02 2.31460836e-02 1.78020373e-02
      1.03388950e-02 -4.44532149e-02 1.20016765e-02 6.39895648e-02
      3.16957906e-02 4.69871573e-02 5.63335679e-02 3.61674093e-02
      1.14357226e-01 4.07078303e-02 9.21117328e-03 2.47373823e-02
      -1.22301444e-01 -1.14184767e-01 -1.19019665e-01 -2.08283588e-01
      -1.74387783e-01 -6.46948591e-02 -5.66148683e-02 -1.25242129e-01
      -1.21661149e-01 1.39952796e-02 5.72370701e-02 1.82276871e-02
      -5.12659401e-02 -1.69331674e-02 9.46796536e-02 8.34603757e-02
      8.81684646e-02 1.68802105e-02 -3.92674655e-02 -4.40066159e-02
      -6.95349872e-02 -1.38923034e-01 -1.15725264e-01 -1.37062790e-02
      -1.03612915e-02 -3.98180494e-03 -3.39669622e-02 4.05094922e-02
      5.55045716e-02 3.25976945e-02 -1.18876528e-02 3.86122963e-03
      9.21189412e-02 8.26523378e-02 1.19687766e-01 5.47511689e-02
      -4.44704890e-02 4.04751860e-02 -3.40031907e-02 -7.21593127e-02
      5.16553111e-02 -1.23001561e-02 -1.39130149e-02 3.30027603e-02
      -3.47202308e-02 2.18991097e-02 3.12826894e-02 -5.14280945e-02
      -6.02123626e-02 2.60911565e-02 -3.04092765e-02 2.87648458e-02
      7.78129399e-02 3.48512046e-02 -4.87405695e-02 4.75452980e-03
      -2.07864530e-02 -7.55797699e-02 2.27542631e-02 -3.86911146e-02
      -3.22957151e-02 3.44247706e-02 -6.18585274e-02 2.00689826e-02
      5.78033319e-03 -6.19606413e-02 -5.52268885e-02 2.63363570e-02
      -4.04053107e-02 -1.02354493e-03 6.23532906e-02 2.93338187e-02
      -4.38143220e-03 6.37863390e-03 -5.89343905e-03 -3.30008902e-02
      -2.94381529e-02 -3.89751904e-02 2.78837048e-02 2.83186175e-02
      -2.87912618e-02 -5.89983985e-02 -7.56568927e-03 7.98204355e-03
      -2.64066365e-02 1.43888127e-03 -9.23098717e-03 1.85890812e-02
      -9.28284321e-03 -8.20187703e-02 6.11487264e-03 2.95993909e-02
      5.25205880e-02 -2.88418327e-02 -8.23030621e-02 -5.84128350e-02
      -8.69254768e-03 -2.70941556e-02 -6.12595826e-02 -5.82126454e-02
      2.13667154e-02 1.00030992e-02 -3.36145684e-02 -7.50641078e-02
      -4.64831777e-02 1.64979473e-02 -1.80401411e-02 -1.01361096e-01
      -1.73041876e-02 2.16428228e-02 2.37963274e-02 -2.94348393e-02
      -2.90543977e-02 4.94225323e-02 9.48997959e-03 8.97992030e-03
      -4.14215550e-02 -4.96477857e-02 1.53331701e-02 4.11770120e-02
      -2.60637212e-03 -3.46473046e-02 -7.40272924e-04 1.65061634e-02
      -2.21308996e-03 -6.24024794e-02 -5.57607785e-02 -1.22835170e-02
      3.13977748e-02 1.73595920e-02 -2.55722273e-02 1.77026857e-02
      3.11986618e-02 2.93728374e-02 -9.61076468e-02 -5.37143238e-02
      -2.25054426e-03 1.35336770e-02 8.92954133e-03 -4.73101772e-02
      -1.15135289e-03 5.38024418e-02 2.55040117e-02 -7.25133196e-02
      -3.89451645e-02 -3.97003964e-02 3.53613831e-02 -2.46801376e-02
      -7.67887533e-02 1.59528200e-03 5.51738590e-02 6.83698952e-02
      1.33873811e-02 -1.94050074e-02 -7.72453919e-02 -1.35309119e-02
      -3.16255502e-02 -8.03702846e-02 -4.53290604e-02 1.71604380e-02
      8.62286463e-02 6.35120049e-02 -2.36231610e-02 8.78873188e-03
      -9.14544892e-03 -9.77235101e-03 -6.97841644e-02 -2.86416709e-02
      4.02983278e-02 3.10787596e-02 -2.30665375e-02 -5.23998030e-02
      -5.08671924e-02 -3.51656228e-02 -2.95745973e-02 -7.86085799e-02
      -1.38419066e-02 2.59833764e-02 3.12506221e-02 1.07920980e-02
      7.59406481e-03 -3.04438137e-02 -1.74681712e-02 1.94965918e-02
      -2.79622860e-02 -5.20009175e-02 -1.37218356e-01 -8.08085799e-02
      5.96923567e-02 7.51172081e-02 4.77508195e-02 3.53361938e-05
      2.72890851e-02 4.96703982e-02 2.63215676e-02 -5.92328534e-02
      -1.85662061e-01 -3.46065573e-02 -3.93618196e-02 -3.57175134e-02
      1.77868258e-03 1.36984941e-02 -4.76344451e-02 4.47285622e-02
      1.83559936e-02 4.43785248e-04 1.02813505e-02 6.05944451e-03
      3.10132909e-03 3.38299833e-02 3.85819897e-02 1.34714460e-02
      7.07094073e-02 5.18227890e-02 -3.43368724e-02 -5.46785891e-02
      6.29588440e-02 -1.01450030e-02 -3.57359499e-02 -2.81722192e-02
      -9.83889680e-03 3.43560837e-02 2.85186395e-02 -2.01520100e-01
      -1.12443790e-01 6.71418607e-02 9.27871652e-03 1.36071462e-02
      6.35497412e-03 -2.02409718e-02 4.13891152e-02 1.20052479e-01
      -7.75646865e-02 -5.20946942e-02 -2.92712590e-03 -1.28306076e-02
      8.91366415e-03 1.12160062e-02 -6.92755654e-02 4.42674384e-02
      4.72873934e-02 -8.77542347e-02 -1.13689557e-01 8.58411938e-03
      -2.17566430e-03 5.90908304e-02 2.26344075e-02 -4.82201278e-02
      6.82442561e-02 1.12824060e-01 -2.40433067e-02 -3.82131115e-02
      4.88809980e-02 -4.44212556e-02 -2.82932520e-02 -3.61404940e-02
      -6.15296587e-02 8.54472350e-03 4.44005318e-02 -9.50535908e-02
      -4.15889360e-02 9.97528657e-02 1.15755768e-02 2.37424728e-02
      -7.40641076e-03 -3.23385559e-02 -9.33550205e-03 1.93352997e-02
      -5.04945740e-02 1.74565390e-02 -4.61842678e-02 -7.28759244e-02
      2.57863943e-02 -2.26290375e-02 -7.72338137e-02 3.25478204e-02
      6.16041347e-02 -4.18585092e-02 -4.74951975e-02 1.97966024e-03
      -4.08284664e-02 3.65782641e-02 7.59077491e-03 -3.49996611e-02
      2.61679906e-02 4.80880216e-02 7.27524934e-03 -1.02951154e-02
      2.65125725e-02 -1.65186170e-02 1.41867960e-03 -3.51361297e-02
      -4.10634279e-02 -2.42496207e-02 2.95330468e-03 -1.07576102e-01
      -4.01216522e-02 -6.67438330e-03 -1.44716138e-02 1.06308898e-02
      1.65707730e-02 -2.49640457e-02 3.59305479e-02 1.34048238e-02
      -6.16004243e-02 -3.26795094e-02 -4.96273336e-04 -5.18729761e-02
      3.18451039e-02 -1.35613531e-02 -5.61480224e-02 -1.14038326e-02
      3.12058162e-02 -1.27502950e-02 -3.95467831e-03 2.42789160e-03
      -2.67786980e-02 4.64492030e-02 1.04292333e-02 -4.89768013e-02
      2.48466451e-02 1.42860049e-02 -9.01868567e-03 9.86206532e-03
      -1.09281605e-02 -6.42237216e-02 -2.33145505e-02 -2.76841111e-02
      -2.29929504e-03 2.95007490e-02 2.63742376e-02 -6.94692060e-02
      -6.88231066e-02 -6.26012608e-02 -5.80509081e-02 -2.51633544e-02
      -7.17443898e-02 -6.71751648e-02 8.96083831e-04 3.78516912e-02
      -5.95700033e-02 -6.16420358e-02 -3.71039659e-02 -6.22287095e-02
      1.24562792e-02 1.65899694e-02 -4.50602034e-03 -7.59329007e-04
      3.68897163e-04 -2.15272177e-02 -2.00444721e-02 1.03014857e-02
      -1.52795389e-02 -2.90747490e-02 1.77366007e-02 1.38749853e-02
      4.22477834e-02 3.50313820e-02 -1.39864191e-04 -7.84838013e-03
      -3.46611254e-02 -5.59540316e-02 -5.26151620e-02 -1.30041704e-01
      -1.52577698e-01 -5.67315854e-02 2.84795742e-02 -1.49206575e-02
      -1.27174398e-02 -1.29285827e-03 3.89762595e-03 1.42712099e-02
      -5.69951944e-02 -1.11553073e-01 -4.85463105e-02 1.93062276e-02
      1.71195678e-02 6.74187066e-03 7.28104869e-03 7.24007003e-03
      8.82628001e-03 -3.34872045e-02 -4.42651249e-02 -6.33937772e-03
      3.05134952e-02 1.24484412e-02 5.81428222e-03 3.82118672e-02
      4.20155637e-02 7.28055686e-02 3.24981250e-02 -2.10247785e-02
      2.56255232e-02 4.75800484e-02 2.91515291e-02 -1.37601709e-02
      5.18125221e-02 2.38776673e-02 5.28536625e-02 -4.07599472e-02
      -7.25402460e-02 -1.19419172e-02 1.06387474e-02 -6.93333298e-02
      1.10348789e-02 2.41700877e-02 2.17342693e-02 5.34361266e-02
      -3.65511551e-02 -7.78302774e-02 -1.62688568e-02 2.46457290e-02
      -6.68495297e-02 6.70691486e-03 6.43557310e-02 1.38023952e-02
      6.67860880e-02 2.04317216e-02 -1.17063960e-02 2.41868794e-02
      4.39038239e-02 1.19794104e-02 6.85559772e-03 3.51390913e-02
      8.50775372e-03 2.20811423e-02 1.48875257e-02 1.62791484e-03
      4.87273000e-02 6.64931238e-02 1.84732042e-02 4.38302830e-02
      2.89442614e-02 1.04080467e-03 5.68079529e-04 -8.23557824e-02
      -1.15103908e-01 -5.15104868e-02 -2.39359541e-03 -4.64009680e-02
      -4.02867571e-02 1.88720655e-02 6.50963634e-02 2.58285776e-02
      -5.62982634e-02 -9.37607586e-02 -2.22812612e-02 1.07144909e-02
      -3.28545719e-02 1.11642177e-04 4.35186699e-02 -5.96887805e-03
      1.87986251e-02 -1.95638090e-02 -2.89637297e-02 2.80683432e-02
      4.48802225e-02 3.73350014e-03 3.50341052e-02 8.59249234e-02
      2.78437696e-02 3.16671282e-02 6.14428136e-05 -1.40566994e-02
      1.11947570e-03 4.85184081e-02 1.11430995e-02 6.22449778e-02
      3.53991464e-02 4.09332365e-02 4.26253006e-02 -7.20317364e-02
      -7.71896169e-02 -4.16054204e-02 -1.94235630e-02 -6.70648515e-02
      -4.65422794e-02 2.35350411e-02 -6.58123940e-03 3.45330313e-03
      -7.26639256e-02 -5.96120954e-02 -1.93951018e-02 -2.54751369e-02
      -7.13035315e-02 -2.52112970e-02 5.34302592e-02 6.33273600e-03
      3.59175205e-02 -1.62650663e-02 3.80310323e-03 2.21861200e-03
      3.04654147e-02 4.77769598e-03 1.08033754e-02 6.53578565e-02
      3.63203958e-02 4.10601646e-02 6.02095388e-02 3.94647606e-02
      4.95146550e-02 1.34624932e-02 4.06373199e-03 7.32846837e-03
      4.99615388e-04 -7.44397193e-02 -8.32016990e-02 -9.72548872e-02
      -8.68257806e-02 -7.00824931e-02 -4.82313037e-02 -7.67553225e-02
      -1.49760097e-02 3.23088607e-03 -7.80399293e-02 -6.80468529e-02
      -4.59873602e-02 -1.84249450e-02 1.00920275e-02 -2.43896507e-02
      -4.49008048e-02 -2.60598995e-02 6.76101446e-02 6.52214652e-03
      3.94641235e-03 5.07625192e-02 4.07967828e-02 -2.68990314e-03
      2.41558608e-02 8.02644342e-03 3.57932821e-02 4.46736813e-02
      1.62828229e-02 -5.39147621e-03 4.11326662e-02 4.29802835e-02
      5.01229614e-02 4.24263924e-02 5.82165755e-02 5.82802072e-02
      -3.24986316e-02 -8.68664086e-02 -8.88946578e-02 -1.09799214e-01
      -8.41514394e-02 -4.07400951e-02 -4.25169319e-02 -1.21582253e-02
      -2.41963826e-02 5.05287712e-03 -1.60599481e-02 1.46285063e-02
      -1.12160854e-02 -3.03093418e-02 4.98693017e-03 1.14103863e-02
      7.62967393e-02 2.09759064e-02 -2.07543876e-02 -5.10216653e-02
      -3.06165200e-02 -4.07923013e-02 -2.09567789e-02 2.70923153e-02
      -4.76654954e-02 3.92681770e-02 -5.77658275e-03 -2.95415800e-02
      1.08577302e-02 6.15321882e-02 4.64940816e-02 3.38801146e-02
      1.90268364e-02 -4.29898407e-03 3.08367424e-02 -4.70961211e-03
      -4.88831513e-02 1.22639295e-02 1.88069083e-02 -1.76283401e-02
      2.73594763e-02 -3.80497091e-02 9.41228028e-03 4.46611084e-02
      -2.83766184e-02 2.90824398e-02 5.39930575e-02 9.22801998e-03
      -1.31598143e-02 -9.32320300e-03 -6.61527142e-02 2.41925418e-02
      8.54188204e-02 5.45772314e-02 -8.59468803e-02 2.75174640e-02
      6.43950403e-02 2.05980651e-02 6.48820214e-03 -8.51825401e-02
      -3.83666041e-03 2.24030465e-02 -5.32732457e-02 -9.66953393e-03
      4.42810133e-02 2.60403585e-02 -1.25639429e-02 -1.30145820e-02
      -6.46850094e-02 2.00650506e-02 6.61752522e-02 1.38725648e-02
      -2.17935555e-02 2.69763134e-02 5.77514358e-02 -7.19209929e-05
      -4.87816818e-02 -2.56689023e-02 3.25410888e-02 -6.22841530e-03
      -4.50852066e-02 -1.47451684e-02 2.66551320e-02 1.33743770e-02
      -8.86209384e-02 -7.32237846e-02 -5.35845570e-02 3.21037695e-02
      2.08686702e-02 -3.53475325e-02 -7.23083094e-02 1.52137242e-02
      -1.07787503e-02 -6.97414801e-02 2.64111944e-02 -7.90937170e-02
      2.94250082e-02 -9.20447055e-03 -6.87896013e-02 -1.03057221e-01
      -9.83462390e-03 2.21324293e-03 -1.41895354e-01 3.51458825e-02
      -9.05122533e-02 2.19909716e-02 1.90567058e-02 -1.03268281e-01
      -1.91900991e-02 1.96218900e-02 2.14947350e-02 -4.82904390e-02
      -4.73076105e-02 -1.45326629e-02 -5.53405937e-03 2.09632516e-02
      -3.33830453e-02 -1.64509099e-02 2.21590027e-02 4.62476723e-03
      -3.43000032e-02 -7.54553899e-02 -3.79306898e-02 -2.49649119e-02
      -1.10752508e-02 -6.25543669e-02 -8.57283249e-02 1.00834938e-02
      2.72531603e-02 -8.91931206e-02 5.18230721e-02 -4.93796952e-02
      -5.14398329e-03 4.23583053e-02 -6.01773448e-02 -4.83615138e-02
      -2.03769654e-02 -2.21002307e-02 -7.83181489e-02 6.33452386e-02
      -7.59892836e-02 -5.04561700e-02 5.52189909e-03 -7.30827451e-02
      2.43188348e-02 2.65804715e-02 -1.97417699e-02 -2.97772102e-02
      -5.73474504e-02 -6.46771444e-03 1.12809101e-02 -1.99912256e-03
      -3.85740437e-02 -5.33855520e-03 2.22281963e-02 -9.91751719e-03
      -4.01476622e-02 -5.01188226e-02 -1.11299683e-03 3.46123129e-02
      2.51851026e-02 -9.43217706e-03 -5.72660612e-03 -1.18176183e-02
      -1.09674567e-02 -6.98144138e-02 5.68307601e-02 -7.81193152e-02
      -3.14084031e-02 -8.74759443e-03 -5.17907627e-02 -6.05534613e-02
      2.19388423e-03 -1.74801741e-02 -6.19433187e-02 4.15728502e-02
      -5.33519424e-02 -2.69366000e-02 -4.55179997e-02 -7.13199303e-02
      2.46582907e-02 -4.93556773e-03 -8.94890539e-03 3.81307211e-03
      -6.37677684e-02 8.23279750e-03 -1.18552921e-02 -1.96918324e-02
      7.83191994e-03 1.68072917e-02 -7.62834819e-03 -1.61284325e-03
      4.13000882e-02 -5.01795225e-02 1.61758997e-02 2.99682096e-02
      -1.40454061e-03 -1.16876299e-02 -2.42030006e-02 3.20651047e-02
      2.65677068e-02 -1.93054322e-02 1.02064259e-01 -4.07682098e-02
      -2.51586847e-02 -4.45048138e-02 -4.31000292e-02 1.81141403e-02
      1.82346925e-02 2.43587531e-02 -2.31541209e-02 1.43482447e-01
      -1.93009852e-03 2.57172436e-02 -1.35205481e-02 2.33517848e-02
      1.02280099e-02 -8.24718997e-02 -4.72983979e-02 -3.67517956e-02
      -1.13298826e-01 -4.69225831e-03 1.97791867e-02 -2.49658097e-02
      -7.50798732e-03 9.30909347e-03 -5.24624549e-02 4.18303125e-02
      5.21167321e-03 -7.98843279e-02 3.34624536e-02 4.06757407e-02
      2.39985082e-02 2.70789508e-02 2.87513826e-02 -2.79972944e-02
      -4.04591998e-03 -6.48334026e-02 5.17809689e-02 -5.05478121e-02
      1.66587066e-02 5.54062752e-03 3.37063894e-02 1.82287544e-02
      -5.15736081e-03 2.69148275e-02 -2.10129339e-02 6.24381453e-02
      -1.41197676e-02 6.16563559e-02 8.34412724e-02 3.59898768e-02
      -5.77143487e-03 -8.76573920e-02 3.72001529e-02 -2.89771557e-02
      -1.02923997e-01 -1.72392372e-02 4.02782820e-02 -1.76822825e-03
      -3.15972492e-02 -1.85279059e-03 -3.41678746e-02 4.78123166e-02
      -1.88540202e-02 -8.37735906e-02 -1.77452210e-04 6.12340532e-02
      1.35990395e-03 -1.88709665e-02 1.83108896e-02 -4.81798574e-02
      2.05929745e-02 -4.76583019e-02 3.63249108e-02 -6.03921674e-02
      5.12560643e-02 8.15904662e-02 2.35577971e-02 4.70546968e-02
      -1.13389958e-02 5.81320450e-02 -2.99348738e-02 8.73509496e-02
      -1.32456766e-02 5.85889369e-02 5.35500236e-02 3.51446830e-02
      -1.04608946e-02 -7.32463673e-02 1.12459073e-02 -2.35019438e-02
      -1.21709883e-01 -7.76605979e-02 3.88338938e-02 8.99868086e-03
      -2.51960196e-02 1.39082260e-02 -2.81771142e-02 6.81911260e-02
      -8.85627046e-03 -1.14967681e-01 -4.69497144e-02 4.80710939e-02
      2.16518678e-02 2.82176342e-02 -1.77992210e-02 -2.93096546e-02
      4.22644839e-02 -1.54078547e-02 7.90160820e-02 -6.62745684e-02
      5.26502766e-02 2.17331760e-02 -4.54753434e-04 -1.02658169e-02
      -4.42956612e-02 8.16280395e-02 -5.86161762e-03 5.58990724e-02
      -4.93336320e-02 9.55044702e-02 4.92256060e-02 3.54766287e-02
      -4.51140068e-02 -7.29888007e-02 1.05336206e-02 -1.33457892e-02
      -6.55911565e-02 -5.16736098e-02 -1.65414419e-02 -4.01278809e-02
      -2.04633158e-02 -2.59399060e-02 -2.38131937e-02 -2.21028575e-03
      1.29574006e-02 -1.19447690e-02 3.63407061e-02 1.99954640e-02
      1.41438739e-02 -9.34598874e-03 -3.45486477e-02 -8.17075297e-02
      4.93871979e-02 -8.08941852e-03 7.79227763e-02 -4.01876271e-02
      3.67549956e-02 -2.24519726e-02 -2.98958505e-03 -3.07615008e-03
      -5.54362610e-02 3.20024304e-02 -1.57384444e-02 1.07583784e-01
      3.49990912e-02 4.47951220e-02 1.85541324e-02 -1.64486710e-02
      -1.17972651e-02 -3.45205516e-02 -6.87992712e-03 -1.13780322e-02
      -2.80624311e-02 2.92018033e-03 -1.26102548e-02 1.37392208e-02
      2.03074631e-03 8.50686524e-03 -2.99523375e-03 3.61749269e-02
      2.47052368e-02 -9.73937754e-03 -1.28561482e-02 -1.34985475e-02
      -9.27571952e-03 1.27626499e-02 -5.32214018e-03 -5.48966900e-02
      -1.15642790e-02 -4.87831756e-02 6.93620667e-02 -5.62238581e-02
      -1.61622390e-02 -1.24091166e-03 8.30688700e-03 3.81538994e-03
      -4.22362722e-02 2.33191270e-02 -3.11264507e-02 1.11835219e-01
      -3.50915007e-02 1.31744575e-02 2.04456020e-02 1.28777772e-02
      -2.08595525e-02 -1.63075514e-02 4.26692478e-02 -1.12107815e-03
      -3.04963682e-02 -2.88133193e-02 1.17897301e-03 -1.04123065e-02
      3.46827856e-03 -4.82745748e-03 -4.22033388e-03 3.58096324e-02
      -2.79606739e-03 -3.24878059e-02 -7.51864491e-03 3.48401219e-02
      4.58509475e-03 3.12408078e-02 -1.06151402e-02 5.26147801e-03
      6.69266433e-02 -1.46660320e-02 1.14785641e-01 -2.73352191e-02
      4.46867496e-02 2.69949753e-02 3.03366240e-02 1.42360609e-02
      1.52321178e-02 8.24770853e-02 -4.10467312e-02 7.17371479e-02
      1.20131923e-02 6.26445711e-02 2.71534342e-02 5.17616165e-04
      1.89457219e-02 -3.15501802e-02 9.52595670e-04 -3.04471217e-02
      -5.44866696e-02 -4.09993604e-02 3.86365806e-03 -6.95320545e-03
      1.47320796e-02 5.54587096e-02 -1.57337394e-02 -3.07707494e-04
      -2.32656207e-03 -1.27779655e-02 -5.58084212e-02 -4.11220681e-04
      2.35470035e-03 4.73600328e-02 3.66998427e-02 -4.98132035e-03
      4.14764434e-02 -3.73615846e-02 5.46033271e-02 -5.51767834e-02
      1.99641623e-02 -1.11443084e-03 5.48201939e-03 2.87337229e-02
      -1.41789634e-02 8.00475758e-03 3.41006629e-02 1.15145795e-01
      -2.46952083e-02 3.30879912e-02 2.08036005e-02 2.74141524e-02
      2.51286430e-03 -9.53576248e-03 -2.57857461e-02 -5.02640717e-02
      -2.71989331e-02 -5.00735268e-02 4.04870883e-03 -1.17074950e-02
      -3.22037525e-02 4.04607831e-03 2.98083648e-02 2.91174296e-02
      3.21815386e-02 2.60753382e-04 1.27103692e-02 4.92072431e-03
      8.68884195e-03 -9.71447211e-03 2.24020015e-02 -1.45701626e-02
      1.08073624e-02 -2.05461886e-02 9.75383744e-02 -4.23434749e-02
      -3.24228243e-03 1.21357981e-02 2.32362244e-02 4.66764495e-02
      2.14859620e-02 7.38430992e-02 -3.69924195e-02 1.32617638e-01
      -3.39037739e-03 4.13522571e-02 3.27138156e-02 3.54185104e-02
      9.13415104e-03 -2.70799864e-02 -7.69712403e-03 -2.65082698e-02
      -5.33440523e-02 -6.78931773e-02 -3.10769938e-02 -3.90159488e-02
      1.81460998e-03 1.36667406e-02 -2.07268950e-02 -1.28825689e-02
      3.03134602e-02 -1.67583991e-02 7.38343690e-03 -1.59031786e-02
      -1.74829792e-02 3.15903053e-02 1.06263580e-02 2.70741846e-04
      2.75873244e-02 -5.81194013e-02 7.91962817e-02 -1.05329148e-01
      -4.25288863e-02 -2.28960328e-02 2.66016982e-02 9.53664351e-03
      -2.44179312e-02 1.32828420e-02 2.79479213e-02 9.42402408e-02
      -2.51420345e-02 -3.91013846e-02 -2.13261656e-02 3.62748839e-02
      -5.68924844e-03 -3.43360975e-02 -2.82233604e-03 -1.74630887e-03
      -5.41076660e-02 9.45027638e-03 -4.89973649e-02 -1.57372430e-02
      -6.72617811e-04 7.94207398e-03 4.41625006e-02 3.71653400e-02
      1.54365106e-02 -4.55126315e-02 -1.35923084e-02 -3.31101157e-02
      7.12309172e-03 2.71248594e-02 -3.47102210e-02 -4.70641404e-02
      -4.84976539e-04 -1.65098552e-02 4.64671999e-02 -4.32543084e-02
      -9.64987278e-02 -5.40445410e-02 -1.80903897e-02 -4.51490730e-02
      2.20872797e-02 -4.67222929e-03 -3.00269052e-02 5.72727025e-02
      -4.11572196e-02 -4.36849929e-02 2.06588581e-02 -8.08747765e-03
      -2.35640723e-02 6.15412183e-02 7.37911686e-02 1.72938034e-02
      -3.61809949e-03 -3.29577774e-02 2.90872343e-02 5.84596619e-02
      -1.08731985e-02 -2.07818951e-03 2.05035135e-02 1.78624149e-02
      -6.69756997e-03 -4.91872244e-03 -3.46183926e-02 3.70520130e-02
      6.44799545e-02 -2.78901705e-03 -8.60730037e-02 1.27943261e-02
      1.30256787e-02 -2.99465396e-02 1.14475541e-01 -5.35756648e-02
      4.56277914e-02 3.90420370e-02 -3.18226591e-02 -6.47784323e-02
      -4.83098067e-02 -3.83844040e-02 3.51938838e-03 1.40148774e-01
      -6.42586350e-02 2.22053304e-02 5.71635887e-02 -2.32265354e-03</_></support_vectors>
  <decision_functions>
    <_>
      <sv_count>1</sv_count>
      <rho>-4.9696192490261666e+00</rho>
      <alpha>
        1.</alpha>
      <index>
        0</index></_></decision_functions></my_svm>
</opencv_storage>
